<?xml version="1.0"?>
<PMML version="4.2" xmlns="http://www.dmg.org/PMML-4_2" xmlns:xsi="http://www.w3.org/2001/XMLSchema-instance" xsi:schemaLocation="http://www.dmg.org/PMML-4_2 http://www.dmg.org/v4-2/pmml-4-2.xsd">
 <Header copyright="Copyright (c) 2016 billbruns" description="KMeans cluster model">
  <Extension name="user" value="billbruns" extender="Rattle/PMML"/>
  <Application name="Rattle/PMML" version="1.4"/>
  <Timestamp>2016-03-07 16:00:59</Timestamp>
 </Header>
 <DataDictionary numberOfFields="4">
  <DataField name="Age" optype="continuous" dataType="double"/>
  <DataField name="Income" optype="continuous" dataType="double"/>
  <DataField name="Deductions" optype="continuous" dataType="double"/>
  <DataField name="Hours" optype="continuous" dataType="double"/>
 </DataDictionary>
 <ClusteringModel modelName="KMeans_Model" functionName="clustering" algorithmName="KMeans: Hartigan and Wong" modelClass="centerBased" numberOfClusters="10">
  <MiningSchema>
   <MiningField name="Age"/>
   <MiningField name="Income"/>
   <MiningField name="Deductions"/>
   <MiningField name="Hours"/>
  </MiningSchema>
  <Output>
   <OutputField name="predictedValue" feature="predictedValue"/>
   <OutputField name="clusterAffinity_1" feature="clusterAffinity" value="1"/>
   <OutputField name="clusterAffinity_2" feature="clusterAffinity" value="2"/>
   <OutputField name="clusterAffinity_3" feature="clusterAffinity" value="3"/>
   <OutputField name="clusterAffinity_4" feature="clusterAffinity" value="4"/>
   <OutputField name="clusterAffinity_5" feature="clusterAffinity" value="5"/>
   <OutputField name="clusterAffinity_6" feature="clusterAffinity" value="6"/>
   <OutputField name="clusterAffinity_7" feature="clusterAffinity" value="7"/>
   <OutputField name="clusterAffinity_8" feature="clusterAffinity" value="8"/>
   <OutputField name="clusterAffinity_9" feature="clusterAffinity" value="9"/>
   <OutputField name="clusterAffinity_10" feature="clusterAffinity" value="10"/>
  </Output>
  <ComparisonMeasure kind="distance">
   <squaredEuclidean/>
  </ComparisonMeasure>
  <ClusteringField field="Age" compareFunction="absDiff"/>
  <ClusteringField field="Income" compareFunction="absDiff"/>
  <ClusteringField field="Deductions" compareFunction="absDiff"/>
  <ClusteringField field="Hours" compareFunction="absDiff"/>
  <Cluster name="1" size="316" id="1">
   <Array n="4" type="real">0.386219792865361 0.0932104251589345 0 0.446363988633427</Array>
  </Cluster>
  <Cluster name="2" size="57" id="2">
   <Array n="4" type="real">0.746145667198299 0.127397011337113 0 0.211063372717508</Array>
  </Cluster>
  <Cluster name="3" size="101" id="3">
   <Array n="4" type="real">0.441344134413441 0.416779024332112 0.001460840135005 0.377348959385734</Array>
  </Cluster>
  <Cluster name="4" size="51" id="4">
   <Array n="4" type="real">0.397504456327986 0.112330578895642 0.587434501657131 0.431172468987595</Array>
  </Cluster>
  <Cluster name="5" size="81" id="5">
   <Array n="4" type="real">0.0974560419004864 0.147607515047572 0.0140069247717973 0.218190980095742</Array>
  </Cluster>
  <Cluster name="6" size="64" id="6">
   <Array n="4" type="real">0.161221590909091 0.510690159230835 0 0.399713010204081</Array>
  </Cluster>
  <Cluster name="7" size="171" id="7">
   <Array n="4" type="real">0.139110402268297 0.252121511728359 0.00134464268950626 0.399749373433584</Array>
  </Cluster>
  <Cluster name="8" size="214" id="8">
   <Array n="4" type="real">0.59742282639479 0.0902901989653457 0 0.449885561701315</Array>
  </Cluster>
  <Cluster name="9" size="62" id="9">
   <Array n="4" type="real">0.0725806451612903 0.370691347884356 0.00654528008772731 0.210335747202107</Array>
  </Cluster>
  <Cluster name="10" size="283" id="10">
   <Array n="4" type="real">0.186904379483885 0.0905148333232372 0 0.456227013773706</Array>
  </Cluster>
 </ClusteringModel>
</PMML>
